{
    "algo": "glm",
    "model_id": "GLM_grid_0_AutoML_20181010_200955_model_0",
    "coef": {
        "Intercept": -0.031287478295955906,
        "cp.1": -0.16587700052508353,
        "cp.2": -0.2082942295325202,
        "cp.3": -0.5207580562195335,
        "cp.4": 0.8944788024827549,
        "restecg.0": -0.09308430738421261,
        "restecg.1": 0.025186112978446494,
        "restecg.2": 0.06721248058250587,
        "slope.1": -0.2678545134678867,
        "slope.2": 0.43108220558310995,
        "slope.3": -0.16391084668459457,
        "thal.3": -0.5554219504078624,
        "thal.6": -0.09227089912200877,
        "thal.7": 0.6471810053605553,
        "exang.0": -0.4022379500895307,
        "exang.1": 0.4021824427307364,
        "fbs.0": 0.1607651638150989,
        "fbs.1": -0.1614828931310506,
        "sex.0": -0.5511103775872558,
        "sex.1": 0.5491140639304243,
        "age": 0.01178936385431453,
        "trestbps": 0.00548370807773488,
        "chol": 0.0012853899933375572,
        "thalach": -0.019686648572270662,
        "oldpeak": 0.24788055162043468,
        "ca": 0.8278309187385436
    },
    "coef_norm": {
        "Intercept": -0.5012602672777469,
        "cp.1": -0.16587700052508353,
        "cp.2": -0.2082942295325202,
        "cp.3": -0.5207580562195335,
        "cp.4": 0.8944788024827549,
        "restecg.0": -0.09308430738421261,
        "restecg.1": 0.025186112978446494,
        "restecg.2": 0.06721248058250587,
        "slope.1": -0.2678545134678867,
        "slope.2": 0.43108220558310995,
        "slope.3": -0.16391084668459457,
        "thal.3": -0.5554219504078624,
        "thal.6": -0.09227089912200877,
        "thal.7": 0.6471810053605553,
        "exang.0": -0.4022379500895307,
        "exang.1": 0.4021824427307364,
        "fbs.0": 0.1607651638150989,
        "fbs.1": -0.1614828931310506,
        "sex.0": -0.5511103775872558,
        "sex.1": 0.5491140639304243,
        "age": 0.10696731195917066,
        "trestbps": 0.09747982320806196,
        "chol": 0.06763664773522479,
        "thalach": -0.45586356137748985,
        "oldpeak": 0.2730478005507271,
        "ca": 0.7708492392244655
    }
}
